<?xml version="1.0"?>
<opencv_storage>
<stage7>
  <maxWeakCount>92</maxWeakCount>
  <stageThreshold>-5.0192916393280029e-01</stageThreshold>
  <weakClassifiers>
    <_>
      <internalNodes>
        0 -1 60791 4.1182190179824829e-03</internalNodes>
      <leafValues>
        3.6073458194732666e-01 -2.2123894095420837e-01</leafValues></_>
    <_>
      <internalNodes>
        0 -1 55083 -1.6605205833911896e-02</internalNodes>
      <leafValues>
        -2.4759480357170105e-01 7.5936444103717804e-02</leafValues></_>
    <_>
      <internalNodes>
        0 -1 20886 2.4679810740053654e-03</internalNodes>
      <leafValues>
        -6.7463323473930359e-02 2.2943073511123657e-01</leafValues></_>
    <_>
      <internalNodes>
        0 -1 7549 6.2277994584292173e-04</internalNodes>
      <leafValues>
        9.3861728906631470e-02 -1.6797056794166565e-01</leafValues></_>
    <_>
      <internalNodes>
        0 -1 70804 1.3078984338790178e-03</internalNodes>
      <leafValues>
        -9.6976205706596375e-02 1.6049703955650330e-01</leafValues></_>
    <_>
      <internalNodes>
        0 -1 13912 -9.2411153018474579e-03</internalNodes>
      <leafValues>
        1.7337031662464142e-01 -1.0455185174942017e-01</leafValues></_>
    <_>
      <internalNodes>
        0 -1 55782 -1.1030407622456551e-03</internalNodes>
      <leafValues>
        1.5074077248573303e-01 -1.0427301377058029e-01</leafValues></_>
    <_>
      <internalNodes>
        0 -1 61254 -6.4135789871215820e-03</internalNodes>
      <leafValues>
        -4.1637834906578064e-01 1.6031773760914803e-02</leafValues></_>
    <_>
      <internalNodes>
        0 -1 70296 -3.7921215407550335e-03</internalNodes>
      <leafValues>
        -4.1830334067344666e-01 4.1441950947046280e-02</leafValues></_>
    <_>
      <internalNodes>
        0 -1 49838 -5.9767309576272964e-03</internalNodes>
      <leafValues>
        1.8234632909297943e-01 -8.0299668014049530e-02</leafValues></_>
    <_>
      <internalNodes>
        0 -1 54468 5.7064117863774300e-03</internalNodes>
      <leafValues>
        -7.8814119100570679e-02 2.4763461947441101e-01</leafValues></_>
    <_>
      <internalNodes>
        0 -1 6917 -1.0144258849322796e-03</internalNodes>
      <leafValues>
        -2.0267063379287720e-01 8.0464720726013184e-02</leafValues></_>
    <_>
      <internalNodes>
        0 -1 67043 3.0059143900871277e-03</internalNodes>
      <leafValues>
        -5.5752433836460114e-02 2.4800494313240051e-01</leafValues></_>
    <_>
      <internalNodes>
        0 -1 63654 9.8651517182588577e-03</internalNodes>
      <leafValues>
        3.0549677088856697e-02 -5.3563499450683594e-01</leafValues></_>
    <_>
      <internalNodes>
        0 -1 70584 1.3458662666380405e-02</internalNodes>
      <leafValues>
        2.9979018494486809e-02 -4.8833799362182617e-01</leafValues></_>
    <_>
      <internalNodes>
        0 -1 76866 -1.8326815217733383e-02</internalNodes>
      <leafValues>
        6.2143105268478394e-01 -2.3936094716191292e-02</leafValues></_>
    <_>
      <internalNodes>
        0 -1 57984 -1.5993092209100723e-02</internalNodes>
      <leafValues>
        -5.6992352008819580e-01 2.8321424499154091e-02</leafValues></_>
    <_>
      <internalNodes>
        0 -1 62733 4.8791151493787766e-03</internalNodes>
      <leafValues>
        1.8422311171889305e-02 -6.7795395851135254e-01</leafValues></_>
    <_>
      <internalNodes>
        0 -1 57788 3.8868258707225323e-03</internalNodes>
      <leafValues>
        -4.6878267079591751e-02 3.1526198983192444e-01</leafValues></_>
    <_>
      <internalNodes>
        0 -1 48264 1.2019160203635693e-02</internalNodes>
      <leafValues>
        -5.9192672371864319e-02 2.5531494617462158e-01</leafValues></_>
    <_>
      <internalNodes>
        0 -1 48504 -4.1483175009489059e-03</internalNodes>
      <leafValues>
        -3.4280183911323547e-01 4.8909727483987808e-02</leafValues></_>
    <_>
      <internalNodes>
        0 -1 38276 -8.5563063621520996e-03</internalNodes>
      <leafValues>
        2.9337379336357117e-01 -5.6338250637054443e-02</leafValues></_>
    <_>
      <internalNodes>
        0 -1 58202 4.3741092085838318e-02</internalNodes>
      <leafValues>
        4.5979097485542297e-02 -3.3483946323394775e-01</leafValues></_>
    <_>
      <internalNodes>
        0 -1 62368 -4.9290312454104424e-03</internalNodes>
      <leafValues>
        -4.5431852340698242e-01 3.1726088374853134e-02</leafValues></_>
    <_>
      <internalNodes>
        0 -1 59316 4.6321982517838478e-03</internalNodes>
      <leafValues>
        1.8559530377388000e-02 -6.5350461006164551e-01</leafValues></_>
    <_>
      <internalNodes>
        0 -1 51631 -7.5459538493305445e-04</internalNodes>
      <leafValues>
        1.8538627028465271e-01 -7.9110667109489441e-02</leafValues></_>
    <_>
      <internalNodes>
        0 -1 73062 5.2401870489120483e-03</internalNodes>
      <leafValues>
        -5.2299492061138153e-02 2.7619695663452148e-01</leafValues></_>
    <_>
      <internalNodes>
        0 -1 61293 2.0905375480651855e-02</internalNodes>
      <leafValues>
        2.1073076874017715e-02 -6.6750210523605347e-01</leafValues></_>
    <_>
      <internalNodes>
        0 -1 61473 -2.9520103707909584e-03</internalNodes>
      <leafValues>
        -2.3728185892105103e-01 6.4748242497444153e-02</leafValues></_>
    <_>
      <internalNodes>
        0 -1 53871 2.1640369668602943e-03</internalNodes>
      <leafValues>
        -7.6597861945629120e-02 1.9484037160873413e-01</leafValues></_>
    <_>
      <internalNodes>
        0 -1 44126 -6.2337908893823624e-03</internalNodes>
      <leafValues>
        3.5648983716964722e-01 -4.3259248137474060e-02</leafValues></_>
    <_>
      <internalNodes>
        0 -1 26629 -3.3119097352027893e-02</internalNodes>
      <leafValues>
        -4.3265956640243530e-01 4.1960194706916809e-02</leafValues></_>
    <_>
      <internalNodes>
        0 -1 78180 3.8815895095467567e-03</internalNodes>
      <leafValues>
        -7.0171035826206207e-02 2.0351436734199524e-01</leafValues></_>
    <_>
      <internalNodes>
        0 -1 67807 -9.9631771445274353e-04</internalNodes>
      <leafValues>
        1.8770678341388702e-01 -8.0169312655925751e-02</leafValues></_>
    <_>
      <internalNodes>
        0 -1 68530 -4.0749725885689259e-03</internalNodes>
      <leafValues>
        -2.1989713609218597e-01 7.4419058859348297e-02</leafValues></_>
    <_>
      <internalNodes>
        0 -1 60719 5.6973628699779510e-02</internalNodes>
      <leafValues>
        -5.6114047765731812e-02 2.6685398817062378e-01</leafValues></_>
    <_>
      <internalNodes>
        0 -1 54902 -1.0886485129594803e-01</internalNodes>
      <leafValues>
        3.0011370778083801e-01 -5.1249995827674866e-02</leafValues></_>
    <_>
      <internalNodes>
        0 -1 74734 2.4462215602397919e-02</internalNodes>
      <leafValues>
        -3.0600406229496002e-02 4.5663398504257202e-01</leafValues></_>
    <_>
      <internalNodes>
        0 -1 53373 -1.2737028300762177e-03</internalNodes>
      <leafValues>
        1.3909588754177094e-01 -1.0403892397880554e-01</leafValues></_>
    <_>
      <internalNodes>
        0 -1 57206 9.2885755002498627e-03</internalNodes>
      <leafValues>
        8.4734253585338593e-02 -1.8875668942928314e-01</leafValues></_>
    <_>
      <internalNodes>
        0 -1 37391 1.3036009669303894e-01</internalNodes>
      <leafValues>
        -2.5454731658101082e-02 6.0720604658126831e-01</leafValues></_>
    <_>
      <internalNodes>
        0 -1 44349 -3.4233622252941132e-02</internalNodes>
      <leafValues>
        5.8887678384780884e-01 -2.1709924563765526e-02</leafValues></_>
    <_>
      <internalNodes>
        0 -1 50975 -3.0726816505193710e-02</internalNodes>
      <leafValues>
        -3.4311878681182861e-01 4.5733872801065445e-02</leafValues></_>
    <_>
      <internalNodes>
        0 -1 29200 -2.8145778179168701e-01</internalNodes>
      <leafValues>
        6.1451572179794312e-01 -2.4485504254698753e-02</leafValues></_>
    <_>
      <internalNodes>
        0 -1 36762 4.2273895815014839e-03</internalNodes>
      <leafValues>
        -7.8834652900695801e-02 1.9754669070243835e-01</leafValues></_>
    <_>
      <internalNodes>
        0 -1 48217 9.1517181135714054e-04</internalNodes>
      <leafValues>
        -7.0678800344467163e-02 1.9311605393886566e-01</leafValues></_>
    <_>
      <internalNodes>
        0 -1 43306 -1.8989671953022480e-03</internalNodes>
      <leafValues>
        1.9011469185352325e-01 -9.6665732562541962e-02</leafValues></_>
    <_>
      <internalNodes>
        0 -1 30977 5.7005882263183594e-02</internalNodes>
      <leafValues>
        2.7462018653750420e-02 -6.8117028474807739e-01</leafValues></_>
    <_>
      <internalNodes>
        0 -1 77601 4.1172411292791367e-03</internalNodes>
      <leafValues>
        3.0869323760271072e-02 -4.2776417732238770e-01</leafValues></_>
    <_>
      <internalNodes>
        0 -1 7304 1.3117790222167969e-03</internalNodes>
      <leafValues>
        5.8926597237586975e-02 -2.2910273075103760e-01</leafValues></_>
    <_>
      <internalNodes>
        0 -1 68238 -4.8267561942338943e-03</internalNodes>
      <leafValues>
        2.2045049071311951e-01 -6.5253332257270813e-02</leafValues></_>
    <_>
      <internalNodes>
        0 -1 43539 1.0486280079931021e-03</internalNodes>
      <leafValues>
        7.6528660953044891e-02 -2.0837771892547607e-01</leafValues></_>
    <_>
      <internalNodes>
        0 -1 31191 4.1300632059574127e-02</internalNodes>
      <leafValues>
        1.4045491814613342e-02 -9.7444510459899902e-01</leafValues></_>
    <_>
      <internalNodes>
        0 -1 61024 -7.9469883348792791e-04</internalNodes>
      <leafValues>
        1.5898421406745911e-01 -9.0784437954425812e-02</leafValues></_>
    <_>
      <internalNodes>
        0 -1 26059 -3.6873221397399902e-02</internalNodes>
      <leafValues>
        -8.9393138885498047e-01 2.0366815850138664e-02</leafValues></_>
    <_>
      <internalNodes>
        0 -1 65940 9.5347873866558075e-03</internalNodes>
      <leafValues>
        -1.0215405374765396e-01 1.4300276339054108e-01</leafValues></_>
    <_>
      <internalNodes>
        0 -1 45457 2.3270358797162771e-03</internalNodes>
      <leafValues>
        1.0714329779148102e-01 -1.4788676798343658e-01</leafValues></_>
    <_>
      <internalNodes>
        0 -1 68679 -2.1319435909390450e-03</internalNodes>
      <leafValues>
        -3.0849838256835938e-01 4.7407053411006927e-02</leafValues></_>
    <_>
      <internalNodes>
        0 -1 68657 2.3142942227423191e-03</internalNodes>
      <leafValues>
        -8.3237670361995697e-02 1.9275477528572083e-01</leafValues></_>
    <_>
      <internalNodes>
        0 -1 6439 1.2972498079761863e-03</internalNodes>
      <leafValues>
        9.2416010797023773e-02 -1.7111252248287201e-01</leafValues></_>
    <_>
      <internalNodes>
        0 -1 43074 2.4391356855630875e-02</internalNodes>
      <leafValues>
        -4.3352052569389343e-02 3.4671443700790405e-01</leafValues></_>
    <_>
      <internalNodes>
        0 -1 26156 -1.0312330909073353e-02</internalNodes>
      <leafValues>
        3.6054405570030212e-01 -4.0813088417053223e-02</leafValues></_>
    <_>
      <internalNodes>
        0 -1 31500 5.4820686578750610e-02</internalNodes>
      <leafValues>
        5.5881064385175705e-02 -2.8206750750541687e-01</leafValues></_>
    <_>
      <internalNodes>
        0 -1 61636 -4.0090188849717379e-04</internalNodes>
      <leafValues>
        1.2455351650714874e-01 -1.2163997441530228e-01</leafValues></_>
    <_>
      <internalNodes>
        0 -1 54616 -4.3863048776984215e-03</internalNodes>
      <leafValues>
        2.2375321388244629e-01 -6.9856613874435425e-02</leafValues></_>
    <_>
      <internalNodes>
        0 -1 6434 -3.8651502691209316e-03</internalNodes>
      <leafValues>
        1.4140745997428894e-01 -1.0713641345500946e-01</leafValues></_>
    <_>
      <internalNodes>
        0 -1 5354 3.4399725496768951e-02</internalNodes>
      <leafValues>
        -2.3344481363892555e-02 7.4452811479568481e-01</leafValues></_>
    <_>
      <internalNodes>
        0 -1 20018 -4.8046796582639217e-03</internalNodes>
      <leafValues>
        -3.4901571273803711e-01 5.2149016410112381e-02</leafValues></_>
    <_>
      <internalNodes>
        0 -1 71371 2.9504761099815369e-02</internalNodes>
      <leafValues>
        9.4916351139545441e-02 -1.7781129479408264e-01</leafValues></_>
    <_>
      <internalNodes>
        0 -1 74416 2.6193028315901756e-02</internalNodes>
      <leafValues>
        -2.4601342156529427e-02 6.2150239944458008e-01</leafValues></_>
    <_>
      <internalNodes>
        0 -1 69175 2.5341927539557219e-04</internalNodes>
      <leafValues>
        -1.0063122957944870e-01 1.5632216632366180e-01</leafValues></_>
    <_>
      <internalNodes>
        0 -1 75453 2.2976151667535305e-03</internalNodes>
      <leafValues>
        4.7445140779018402e-02 -3.3786255121231079e-01</leafValues></_>
    <_>
      <internalNodes>
        0 -1 49681 3.3665301743894815e-03</internalNodes>
      <leafValues>
        -6.3970640301704407e-02 2.3252058029174805e-01</leafValues></_>
    <_>
      <internalNodes>
        0 -1 66621 -6.0029979795217514e-03</internalNodes>
      <leafValues>
        2.5455904006958008e-01 -6.4274474978446960e-02</leafValues></_>
    <_>
      <internalNodes>
        0 -1 21411 1.0880658403038979e-02</internalNodes>
      <leafValues>
        4.7520834952592850e-02 -3.3828574419021606e-01</leafValues></_>
    <_>
      <internalNodes>
        0 -1 65632 -2.9568388126790524e-03</internalNodes>
      <leafValues>
        2.0837932825088501e-01 -7.6704047620296478e-02</leafValues></_>
    <_>
      <internalNodes>
        0 -1 14160 -2.2797985002398491e-02</internalNodes>
      <leafValues>
        -2.0614145696163177e-01 7.3652476072311401e-02</leafValues></_>
    <_>
      <internalNodes>
        0 -1 74874 -3.8033746182918549e-02</internalNodes>
      <leafValues>
        5.9181195497512817e-01 -2.5099804624915123e-02</leafValues></_>
    <_>
      <internalNodes>
        0 -1 70962 -3.6476587411016226e-03</internalNodes>
      <leafValues>
        -2.0224779844284058e-01 8.2429818809032440e-02</leafValues></_>
    <_>
      <internalNodes>
        0 -1 74614 -1.0621054098010063e-02</internalNodes>
      <leafValues>
        6.5468460321426392e-01 -2.2251646965742111e-02</leafValues></_>
    <_>
      <internalNodes>
        0 -1 59316 -5.5895315017551184e-04</internalNodes>
      <leafValues>
        1.6974757611751556e-01 -8.1974186003208160e-02</leafValues></_>
    <_>
      <internalNodes>
        0 -1 38423 6.7377742379903793e-03</internalNodes>
      <leafValues>
        1.9846003502607346e-02 -6.8963521718978882e-01</leafValues></_>
    <_>
      <internalNodes>
        0 -1 28716 -2.7596293948590755e-03</internalNodes>
      <leafValues>
        1.5282350778579712e-01 -9.3776069581508636e-02</leafValues></_>
    <_>
      <internalNodes>
        0 -1 21820 8.5550677031278610e-03</internalNodes>
      <leafValues>
        3.4032877534627914e-02 -4.8669850826263428e-01</leafValues></_>
    <_>
      <internalNodes>
        0 -1 54650 5.1267206668853760e-02</internalNodes>
      <leafValues>
        1.8994716927409172e-02 -7.2421860694885254e-01</leafValues></_>
    <_>
      <internalNodes>
        0 -1 671 4.4081139564514160e-01</internalNodes>
      <leafValues>
        -2.0197873935103416e-02 7.7160352468490601e-01</leafValues></_>
    <_>
      <internalNodes>
        0 -1 36271 1.2194161303341389e-02</internalNodes>
      <leafValues>
        2.6491163298487663e-02 -5.4974883794784546e-01</leafValues></_>
    <_>
      <internalNodes>
        0 -1 42643 1.5755549073219299e-02</internalNodes>
      <leafValues>
        -4.6585172414779663e-02 3.0478116869926453e-01</leafValues></_>
    <_>
      <internalNodes>
        0 -1 31044 1.1119112605229020e-03</internalNodes>
      <leafValues>
        1.1703891307115555e-01 -1.5527202188968658e-01</leafValues></_>
    <_>
      <internalNodes>
        0 -1 28407 -9.3463808298110962e-02</internalNodes>
      <leafValues>
        -2.3673820495605469e-01 7.2666443884372711e-02</leafValues></_>
    <_>
      <internalNodes>
        0 -1 52052 1.0241149924695492e-02</internalNodes>
      <leafValues>
        -4.7910287976264954e-02 3.1562304496765137e-01</leafValues></_>
    <_>
      <internalNodes>
        0 -1 28736 -6.2784343957901001e-02</internalNodes>
      <leafValues>
        5.4388779401779175e-01 -2.3034671321511269e-02</leafValues></_></weakClassifiers></stage7>
</opencv_storage>
